const model = {"neuronCounts":[5,10,8],"classes":["car","fish","house","tree","bicycle","guitar","pencil","clock"],"network":{"levels":[{"inputs":[0.18,0.44794188861985473,0.0813202658847764,0.7407592880819288,0.23283511919920077],"outputs":[0.8683072576642902,0.05367709931488315,1.8282147879039266,-0.46489268062929007,-0.45247574787263406,0.5654973887150255,1.0459731625564028,-1.40103795473938,0.9409221294899253,0.2664305420665728],"biases":[0.6489136976538616,-0.02098215580704954,0.5725286967032117,-0.8424502311312474,-0.9052815870459683,-0.25613945069218236,0.8298254635583397,-0.47478780173891577,0.18105917994843868,-0.5123455724759265],"weights":[[0.8166784623362187,-0.06411642893372038,0.9242676282803255,0.3733444645074271,0.09118838810362817,0.7360398716530212,-0.08177110546172761,-0.3273947260688099,-0.32239497719012133,-0.3711613856070253],[-0.6206702680359326,-0.43454690969933685,0.8207668232643566,-0.3265471538842908,-0.29751303155318665,0.9175238559611238,-0.10481193842247283,-0.8401466425757675,0.8112961065313713,0.07968365551626588],[0.951915640572992,-0.996773612209652,-0.07535324998286752,0.7186261841875652,-0.00800184593846609,-0.9212389745853327,0.5829505309929166,0.7204962044036223,-0.18342077905789944,-0.627623175188039],[0.26574180011928084,0.28039435883113617,0.809744095682909,0.3312775922282798,0.8766319136762437,0.45321103959861997,0.44734572196128974,-0.7197365456963225,0.7275317381235653,0.9372348871229623],[0.3270765572856762,0.6622933251087093,0.5495921925269989,0.6562320602840628,-0.3395623553685345,0.074505104681303,-0.4336331882568478,-0.07052905200065585,-0.29862131993087626,0.7158050431218292]]},{"inputs":[0.8683072576642902,0.05367709931488315,1.8282147879039266,-0.46489268062929007,-0.45247574787263406,0.5654973887150255,1.0459731625564028,-1.40103795473938,0.9409221294899253,0.2664305420665728],"outputs":[1.6520337960104396,-0.3007203641798515,1.4301780725900328,-3.086572515899867,-2.58701483685301,1.7380110575458856,0.5342993623071584,0.3401350950077788],"biases":[0.8073388475412773,0.7868064527857253,0.4803318368338023,0.7979027628173321,-0.544900565311063,0.9156692413010861,0.23803766169464335,0.057103615267758645],"weights":[[-0.7827206379438909,-0.714031456743351,-0.7206108303861218,-0.9083440183786493,-0.025576274137695698,-0.8423720866573219,0.36050743488118053,0.0233436161235554],[0.9321441310807757,0.4875564088746205,0.5078677015614446,0.9426359010449805,0.1783298696176936,-0.9132229337683739,-0.44765404287666755,-0.3398113016375883],[0.8120469951663178,0.1739223349849235,0.35575100428546413,-0.6807305635014971,0.004914527721285644,0.9025386236423643,-0.2205331168269824,0.7273803477635878],[-0.10083489326338979,0.16223364582899658,0.059813112443448446,-0.6934732903039946,0.584952691818589,-0.6478632083695577,-0.336031031613063,-0.6676959214712124],[0.3849725268770414,-0.9544816928757629,-0.8168245219590395,0.6940965153987508,0.28968630241609894,0.5594655818457706,-0.7952741452149308,0.410546877553422],[-0.3262784550736537,0.031070561417929188,0.5423362410427304,-0.8587526487931543,-0.7852662093821912,-0.6944243475259122,-0.13869301754244612,0.040228556857157205],[0.09771046749950107,0.1300024027154416,-0.6346215727731468,-0.1439352445721087,-0.16131182755185414,0.3476704752895592,-0.04471141322273242,-0.3534103594518805],[-0.3503192703456248,0.5787252895257287,-0.795165178353773,0.14270359504678254,0.4475522846631619,0.5608372810812292,-0.23426291671256694,0.9778459899842518],[-0.48232606293892966,-0.3785772464336037,-0.3877817955043361,-0.9539620837185856,-0.4707207604990167,0.6458424524795707,-0.10173895588416926,0.6121500563258166],[0.6093405348887244,-0.5804373714489133,0.6157117397714953,-0.6622615305209343,0.1775177598909159,0.419734485659883,-0.7991005827562794,-0.12208584293731173]]}]}};