const model = {
  "neuronCounts": [
    5,
    10,
    8
  ],
  "classes": [
    "car",
    "fish",
    "house",
    "tree",
    "bicycle",
    "guitar",
    "pencil",
    "clock"
  ],
  "network": {
    "levels": [
      {
        "weights": [
          [
            -1.2415387991536588,
            1.6599098137770485,
            1.4377447507814778,
            -2.545511990351989,
            0.813039305266413,
            -0.02280578362440429,
            -0.18030073110604264,
            1.0455934325851184,
            0.12018453563300872,
            -1.4882873284620701
          ],
          [
            0.3451365749898978,
            -1.0190022634456584,
            -0.7853999493548018,
            2.0100499830018523,
            -2.629820937070535,
            0.8145811061399264,
            -2.087454739661914,
            -1.0003254857797192,
            -0.5960553539917993,
            -0.9166404843718321
          ],
          [
            2.02660654035977,
            5.9878063101675725,
            1.8856291229936786,
            1.468276601031085,
            1.1675470882022065,
            3.913737017927999,
            -3.44101370801505,
            -6.65530432654678,
            5.53384968666589,
            5.395333229800329
          ],
          [
            -1.745697586785842,
            -1.8353347399625304,
            1.7235850708913132,
            1.4550022943120187,
            1.6339142333181256,
            1.032356568225409,
            1.3533108608818725,
            2.0924049427161577,
            0.24529610986345696,
            -0.12245326277919555
          ],
          [
            0.4101246362171138,
            1.249922105535407,
            1.4397710283333558,
            -0.16961715494582585,
            -0.36524052232155757,
            1.9302499570006126,
            0.9121063203584113,
            0.9270771767611122,
            -5.3742038781505315,
            -1.532006829563037
          ]
        ],
        "biases": [
          0.4265493506669258,
          1.2215291132791293,
          -1.8090953274879655,
          -1.3030449934347967,
          -0.7304642105065594,
          -0.6772092715604686,
          -0.24223694679244434,
          -1.4382414285550387,
          0.27194306253983175,
          0.15683742018364769
        ],
        "inputs": [
          0,
          0,
          0,
          0,
          0
        ],
        "outputs": [
          0,
          0,
          0,
          0,
          0,
          0,
          0,
          0,
          0,
          0
        ]
      },
      {
        "weights": [
          [
            -0.799937088951535,
            -1.5690562428539294,
            -0.16573570320526743,
            -0.9189763445033708,
            -0.6507320527771058,
            0.9998455926513039,
            1.780923855661144,
            0.13476346859608113
          ],
          [
            0.9480956213810814,
            1.7343253318883984,
            -0.6636972826406793,
            -1.7619441842318482,
            1.6250208540411768,
            1.843768543316693,
            0.045715612954730464,
            -3.202069868200178
          ],
          [
            5.679218432363644,
            -1.8941534643596485,
            -3.3377027206243866,
            -0.655881682557119,
            -2.8130115662736626,
            -0.41841106817787044,
            0.06451437172578083,
            5.81807376494174
          ],
          [
            -1.2198931084301667,
            -1.5084959788376662,
            -0.5336748040811244,
            2.698678669625582,
            -2.9414689672012515,
            -0.3681865547980144,
            -1.1125884023085288,
            6.000042938535008
          ],
          [
            3.5347852979568817,
            0.8744778947720878,
            -1.006324141963454,
            -3.7194501865672125,
            0.6088915724928884,
            0.7866923884914147,
            -2.7303558028966375,
            2.7854206469326046
          ],
          [
            -0.35844960455195074,
            -0.8998120977581079,
            -0.35841352265412246,
            -0.0672605465923135,
            -0.2545661825959585,
            -1.3302437055379255,
            0.12082535990705773,
            4.500143285146131
          ],
          [
            1.0503552359087531,
            1.2550196516888734,
            1.548253509647071,
            -1.456379850912535,
            3.474313183109653,
            -1.3613345461885924,
            -2.534269356692812,
            0.02731434036261801
          ],
          [
            0.5167265544954479,
            0.047047486510243944,
            0.579254956515836,
            2.8847125365780224,
            1.9587577094699427,
            -5.309827777651313,
            -0.28679048338553054,
            0.7830326836527072
          ],
          [
            1.6533164035126349,
            0.7849092823551382,
            -2.5373199334625065,
            2.3079638290984983,
            -1.4749411517159468,
            -2.2381242858045787,
            0.9244665868863797,
            1.9706494267235066
          ],
          [
            -0.0895857829692237,
            1.0082341835864452,
            -1.3985183470911404,
            -0.72818072757151,
            -0.7337128621372105,
            -2.5581624503599647,
            2.596224892586406,
            1.2406884669268654
          ]
        ],
        "biases": [
          -1.1581805421024063,
          0.8407428735535856,
          0.29653154172977486,
          -0.2620481425532843,
          -0.9861706079294443,
          -1.8998329296293441,
          -0.527417372241003,
          1.2981618900487737
        ],
        "inputs": [
          0,
          0,
          0,
          0,
          0,
          0,
          0,
          0,
          0,
          0
        ],
        "outputs": [
          0,
          0,
          0,
          0,
          0,
          0,
          0,
          0
        ]
      }
    ]
  }
};